digraph Tree {
node [shape=box, style="filled, rounded", color="black", fontname=helvetica] ;
edge [fontname=helvetica] ;
0 [label="MonthsInService <= -0.99\ngini = 0.5\nsamples = 50678\nvalue = [25339, 25339]\nclass = Not churn", fillcolor="#ffffff"] ;
1 [label="OverageMinutes <= -0.41\ngini = 0.39\nsamples = 6606\nvalue = [4875, 1731]\nclass = Not churn", fillcolor="#eeae7f"] ;
0 -> 1 [labeldistance=2.5, labelangle=45, headlabel="True"] ;
2 [label="TotalRecurringCharge <= -0.29\ngini = 0.29\nsamples = 2586\nvalue = [2132, 454]\nclass = Not churn", fillcolor="#eb9c63"] ;
1 -> 2 ;
3 [label="TotalRecurringCharge <= -0.86\ngini = 0.39\nsamples = 525\nvalue = [387, 138]\nclass = Not churn", fillcolor="#eeae80"] ;
2 -> 3 ;
4 [label="MonthlyMinutes <= -0.82\ngini = 0.3\nsamples = 338\nvalue = [275, 63]\nclass = Not churn", fillcolor="#eb9e66"] ;
3 -> 4 ;
5 [label="gini = 0.4\nsamples = 162\nvalue = [117, 45]\nclass = Not churn", fillcolor="#efb185"] ;
4 -> 5 ;
6 [label="gini = 0.18\nsamples = 176\nvalue = [158, 18]\nclass = Not churn", fillcolor="#e88f50"] ;
4 -> 6 ;
7 [label="CustomerCareCalls <= 0.51\ngini = 0.48\nsamples = 187\nvalue = [112, 75]\nclass = Not churn", fillcolor="#f6d5be"] ;
3 -> 7 ;
8 [label="gini = 0.47\nsamples = 170\nvalue = [107, 63]\nclass = Not churn", fillcolor="#f4cbae"] ;
7 -> 8 ;
9 [label="gini = 0.42\nsamples = 17\nvalue = [5, 12]\nclass = Churn", fillcolor="#8bc6f0"] ;
7 -> 9 ;
10 [label="MonthlyMinutes <= -0.99\ngini = 0.26\nsamples = 2061\nvalue = [1745, 316]\nclass = Not churn", fillcolor="#ea985d"] ;
2 -> 10 ;
11 [label="MonthlyRevenue <= -0.63\ngini = 0.49\nsamples = 16\nvalue = [7, 9]\nclass = Churn", fillcolor="#d3e9f9"] ;
10 -> 11 ;
12 [label="gini = 0.0\nsamples = 3\nvalue = [3, 0]\nclass = Not churn", fillcolor="#e58139"] ;
11 -> 12 ;
13 [label="gini = 0.43\nsamples = 13\nvalue = [4, 9]\nclass = Churn", fillcolor="#91c9f1"] ;
11 -> 13 ;
14 [label="MaritalStatus_Yes <= 0.97\ngini = 0.26\nsamples = 2045\nvalue = [1738, 307]\nclass = Not churn", fillcolor="#ea975c"] ;
10 -> 14 ;
15 [label="gini = 0.29\nsamples = 1311\nvalue = [1079, 232]\nclass = Not churn", fillcolor="#eb9c64"] ;
14 -> 15 ;
16 [label="gini = 0.18\nsamples = 734\nvalue = [659, 75]\nclass = Not churn", fillcolor="#e88f50"] ;
14 -> 16 ;
17 [label="TotalRecurringCharge <= -0.08\ngini = 0.43\nsamples = 4020\nvalue = [2743, 1277]\nclass = Not churn", fillcolor="#f1bc95"] ;
1 -> 17 ;
18 [label="OverageMinutes <= -0.4\ngini = 0.49\nsamples = 1212\nvalue = [692, 520]\nclass = Not churn", fillcolor="#f9e0ce"] ;
17 -> 18 ;
19 [label="gini = 0.0\nsamples = 23\nvalue = [0, 23]\nclass = Churn", fillcolor="#399de5"] ;
18 -> 19 ;
20 [label="UniqueSubs <= -0.41\ngini = 0.49\nsamples = 1189\nvalue = [692, 497]\nclass = Not churn", fillcolor="#f8dbc7"] ;
18 -> 20 ;
21 [label="gini = 0.46\nsamples = 629\nvalue = [408, 221]\nclass = Not churn", fillcolor="#f3c5a4"] ;
20 -> 21 ;
22 [label="gini = 0.5\nsamples = 560\nvalue = [284, 276]\nclass = Not churn", fillcolor="#fefbf9"] ;
20 -> 22 ;
23 [label="MonthsInService <= -0.99\ngini = 0.39\nsamples = 2808\nvalue = [2051, 757]\nclass = Not churn", fillcolor="#efb082"] ;
17 -> 23 ;
24 [label="MonthsInService <= -1.1\ngini = 0.43\nsamples = 2122\nvalue = [1462, 660]\nclass = Not churn", fillcolor="#f1ba92"] ;
23 -> 24 ;
25 [label="gini = 0.39\nsamples = 1981\nvalue = [1462, 519]\nclass = Not churn", fillcolor="#eeae7f"] ;
24 -> 25 ;
26 [label="gini = 0.0\nsamples = 141\nvalue = [0, 141]\nclass = Churn", fillcolor="#399de5"] ;
24 -> 26 ;
27 [label="OverageMinutes <= -0.4\ngini = 0.24\nsamples = 686\nvalue = [589, 97]\nclass = Not churn", fillcolor="#e9965a"] ;
23 -> 27 ;
28 [label="gini = 0.0\nsamples = 4\nvalue = [0, 4]\nclass = Churn", fillcolor="#399de5"] ;
27 -> 28 ;
29 [label="gini = 0.24\nsamples = 682\nvalue = [589, 93]\nclass = Not churn", fillcolor="#e99558"] ;
27 -> 29 ;
30 [label="OverageMinutes <= -0.41\ngini = 0.5\nsamples = 44072\nvalue = [20464, 23608]\nclass = Churn", fillcolor="#e5f2fc"] ;
0 -> 30 [labeldistance=2.5, labelangle=-45, headlabel="False"] ;
31 [label="MonthlyMinutes <= -0.61\ngini = 0.5\nsamples = 18074\nvalue = [9566, 8508]\nclass = Not churn", fillcolor="#fcf1e9"] ;
30 -> 31 ;
32 [label="Occupation_Other <= 0.0\ngini = 0.5\nsamples = 10340\nvalue = [4828, 5512]\nclass = Churn", fillcolor="#e6f3fc"] ;
31 -> 32 ;
33 [label="MonthsInService <= -0.59\ngini = 0.5\nsamples = 3184\nvalue = [1727, 1457]\nclass = Not churn", fillcolor="#fbebe0"] ;
32 -> 33 ;
34 [label="gini = 0.49\nsamples = 577\nvalue = [248, 329]\nclass = Churn", fillcolor="#cee7f9"] ;
33 -> 34 ;
35 [label="gini = 0.49\nsamples = 2607\nvalue = [1479, 1128]\nclass = Not churn", fillcolor="#f9e1d0"] ;
33 -> 35 ;
36 [label="Occupation_Other <= 1.0\ngini = 0.49\nsamples = 7156\nvalue = [3101, 4055]\nclass = Churn", fillcolor="#d0e8f9"] ;
32 -> 36 ;
37 [label="gini = 0.0\nsamples = 198\nvalue = [0, 198]\nclass = Churn", fillcolor="#399de5"] ;
36 -> 37 ;
38 [label="gini = 0.49\nsamples = 6958\nvalue = [3101, 3857]\nclass = Churn", fillcolor="#d8ecfa"] ;
36 -> 38 ;
39 [label="CurrentEquipmentDays <= -0.31\ngini = 0.47\nsamples = 7734\nvalue = [4738, 2996]\nclass = Not churn", fillcolor="#f5d1b6"] ;
31 -> 39 ;
40 [label="MonthsInService <= -0.89\ngini = 0.42\nsamples = 2634\nvalue = [1839, 795]\nclass = Not churn", fillcolor="#f0b78f"] ;
39 -> 40 ;
41 [label="gini = 0.0\nsamples = 45\nvalue = [0, 45]\nclass = Churn", fillcolor="#399de5"] ;
40 -> 41 ;
42 [label="gini = 0.41\nsamples = 2589\nvalue = [1839, 750]\nclass = Not churn", fillcolor="#f0b48a"] ;
40 -> 42 ;
43 [label="MonthsInService <= -0.59\ngini = 0.49\nsamples = 5100\nvalue = [2899, 2201]\nclass = Not churn", fillcolor="#f9e1cf"] ;
39 -> 43 ;
44 [label="gini = 0.5\nsamples = 1158\nvalue = [537, 621]\nclass = Churn", fillcolor="#e4f2fb"] ;
43 -> 44 ;
45 [label="gini = 0.48\nsamples = 3942\nvalue = [2362, 1580]\nclass = Not churn", fillcolor="#f6d5bd"] ;
43 -> 45 ;
46 [label="OverageMinutes <= -0.4\ngini = 0.49\nsamples = 25998\nvalue = [10898, 15100]\nclass = Churn", fillcolor="#c8e4f8"] ;
30 -> 46 ;
47 [label="gini = 0.0\nsamples = 786\nvalue = [0, 786]\nclass = Churn", fillcolor="#399de5"] ;
46 -> 47 ;
48 [label="HandsetPrice_Unknown <= 0.0\ngini = 0.49\nsamples = 25212\nvalue = [10898, 14314]\nclass = Churn", fillcolor="#d0e8f9"] ;
46 -> 48 ;
49 [label="CreditRating_5-Low <= 1.0\ngini = 0.5\nsamples = 12225\nvalue = [6061, 6164]\nclass = Churn", fillcolor="#fcfdff"] ;
48 -> 49 ;
50 [label="gini = 0.5\nsamples = 10724\nvalue = [5049, 5675]\nclass = Churn", fillcolor="#e9f4fc"] ;
49 -> 50 ;
51 [label="gini = 0.44\nsamples = 1501\nvalue = [1012, 489]\nclass = Not churn", fillcolor="#f2be99"] ;
49 -> 51 ;
52 [label="HandsetPrice_Unknown <= 1.0\ngini = 0.47\nsamples = 12987\nvalue = [4837, 8150]\nclass = Churn", fillcolor="#afd7f4"] ;
48 -> 52 ;
53 [label="gini = 0.0\nsamples = 702\nvalue = [0, 702]\nclass = Churn", fillcolor="#399de5"] ;
52 -> 53 ;
54 [label="gini = 0.48\nsamples = 12285\nvalue = [4837, 7448]\nclass = Churn", fillcolor="#baddf6"] ;
52 -> 54 ;
}
